#ifndef WEIGHTS_H
#define WEIGHTS_H

const float layer_1_weights[864] = {
    0.001609f, -0.000000f, 0.154917f, 0.000002f, 0.014928f, -0.000000f, 0.000000f, 0.000000f, -0.112762f, -0.237320f,
    0.277191f, 0.050332f, -0.421046f, 0.173462f, -0.535633f, -0.000596f, 0.053493f, 0.224989f, -0.000000f, 0.002203f,
    -0.538195f, -0.022131f, -0.000000f, -0.000000f, 0.000000f, -0.012344f, -0.011444f, 0.000000f, -0.004250f, -0.000000f,
    -0.046498f, -0.343741f, 0.001250f, -0.000000f, 0.232940f, 0.000003f, 0.019965f, 0.000000f, 0.000000f, 0.000000f,
    -0.276437f, -0.515991f, 0.678670f, 0.030255f, -0.755710f, 0.329371f, -0.970951f, -0.030300f, 0.079974f, -0.445112f,
    -0.000000f, 0.016191f, 0.213520f, 0.043661f, -0.000000f, 0.000000f, 0.000000f, 0.048182f, -0.027112f, 0.000000f,
    0.011286f, 0.000000f, -0.129656f, -0.385711f, 0.001099f, -0.000000f, 0.044434f, -0.000008f, -0.004186f, 0.000000f,
    0.000000f, -0.000000f, -0.166631f, -0.114277f, 0.158380f, 0.016012f, -0.153278f, 0.090367f, -0.212224f, -0.037431f,
    0.009535f, 0.226606f, -0.000000f, -0.004061f, 0.332673f, 0.017022f, 0.000000f, 0.000000f, -0.000000f, -0.053427f,
    0.034784f, 0.000000f, -0.031884f, -0.000000f, 0.031732f, -0.239309f, 0.001602f, -0.000000f, 0.296779f, 0.000001f,
    0.064696f, -0.000000f, 0.000000f, 0.000000f, -0.153759f, 0.440664f, 0.041678f, -0.013454f, -0.078511f, 0.531504f,
    0.050119f, -0.016976f, -0.299409f, 0.253684f, -0.000000f, 0.002865f, -0.463203f, -0.035726f, -0.000000f, -0.000000f,
    0.000000f, 0.006845f, -0.023346f, -0.000000f, -0.006103f, -0.000000f, 0.030539f, -0.619082f, 0.001241f, -0.000000f,
    0.473551f, 0.000001f, 0.036869f, 0.000000f, 0.000000f, 0.000000f, -0.453737f, 0.857817f, 0.047418f, -0.051802f,
    -0.088269f, 0.996564f, 0.025031f, -0.028541f, -0.583737f, -0.568655f, -0.000000f, -0.077203f, 0.193819f, -0.045224f,
    0.000000f, -0.000000f, 0.000000f, -0.042790f, 0.005688f, 0.000000f, 0.028658f, -0.000000f, -0.024689f, -0.744522f,
    0.001104f, -0.000000f, 0.077216f, -0.000011f, -0.010132f, 0.000000f, 0.000000f, -0.000000f, -0.174550f, 0.212089f,
    -0.024195f, 0.014409f, 0.043148f, 0.271192f, -0.000394f, -0.008408f, -0.149964f, 0.324313f, -0.000000f, 0.055887f,
    0.280506f, 0.019977f, 0.000000f, -0.000000f, 0.000000f, -0.710642f, 0.012181f, 0.000000f, 0.000633f, -0.000000f,
    0.013300f, -0.481750f, 0.001636f, 0.000000f, 0.027164f, 0.000023f, -0.000761f, -0.000000f, -0.000000f, 0.000000f,
    -0.042796f, -0.203175f, -0.089008f, 0.016166f, 0.155882f, 0.173034f, -0.009132f, -0.004529f, 0.004481f, 0.029004f,
    -0.000000f, 0.130941f, 0.024123f, -0.032182f, -0.000000f, -0.000000f, -0.000000f, 0.000711f, -0.046996f, -0.000000f,
    -0.050325f, -0.000000f, -0.006604f, -0.180566f, 0.001278f, 0.000000f, 0.059388f, 0.000026f, 0.031525f, 0.000000f,
    -0.000000f, 0.000000f, -0.121630f, -0.355201f, -0.205132f, -0.067755f, 0.253371f, 0.347523f, -0.019483f, 0.001934f,
    -0.047576f, -0.139419f, -0.000000f, -0.317913f, -0.008166f, -0.045678f, 0.000000f, -0.000000f, -0.000000f, 0.002222f,
    0.004656f, 0.000000f, 0.053246f, -0.000000f, -0.036965f, -0.255986f, 0.001136f, 0.000000f, 0.052184f, 0.000035f,
    -0.003882f, 0.000000f, -0.000000f, -0.000000f, 0.006046f, -0.105903f, -0.052443f, 0.009543f, 0.031160f, 0.065725f,
    -0.000136f, -0.032596f, -0.013086f, 0.108232f, -0.000000f, 0.055230f, -0.001861f, -0.006122f, 0.000000f, -0.000000f,
    -0.000000f, -0.265953f, 0.030673f, 0.000000f, 0.058148f, -0.000000f, -0.001594f, -0.123142f, 0.001636f, -0.000000f,
    -0.029963f, -0.000000f, -0.000736f, -0.000000f, -0.000000f, 0.000000f, -0.048355f, -0.010103f, 0.101722f, 0.017695f,
    -0.035329f, -0.356381f, 0.019750f, 0.254308f, 0.076907f, 0.328082f, -0.000000f, 0.052429f, -0.793339f, 0.387332f,
    -0.000000f, 0.000000f, 0.000000f, -0.019873f, 0.034043f, 0.000000f, 0.024527f, -0.000000f, 0.473823f, 0.353012f,
    0.001277f, -0.000000f, 0.003491f, -0.000001f, 0.024522f, 0.000000f, -0.000000f, 0.000000f, 0.043715f, 0.077191f,
    0.059811f, -0.058783f, -0.086419f, -0.576569f, 0.085200f, 0.533445f, 0.123277f, -0.643342f, -0.000000f, -0.068363f,
    0.350676f, 0.719035f, 0.000000f, 0.000000f, 0.000000f, 0.007675f, -0.011765f, 0.000000f, 0.047801f, -0.000000f,
    0.872679f, 0.455254f, 0.001123f, -0.000000f, 0.011856f, -0.000012f, -0.036447f, 0.000000f, -0.000000f, -0.000000f,
    0.006251f, 0.017089f, -0.050128f, -0.013182f, -0.010998f, -0.125837f, -0.054109f, 0.189971f, 0.021157f, 0.331150f,
    -0.000000f, 0.046253f, 0.468853f, 0.221952f, 0.000000f, 0.000000f, 0.000000f, -0.026831f, -0.028993f, 0.000000f,
    0.004330f, -0.000000f, 0.119268f, 0.173367f, 0.001639f, -0.000000f, -0.032846f, -0.000005f, -0.504675f, -0.000000f,
    0.000000f, 0.000000f, 0.042445f, 0.010083f, 0.086546f, -0.190874f, -0.045564f, -0.453081f, -0.011375f, 0.020587f,
    -0.293025f, 0.443769f, -0.000000f, 0.000597f, -0.608266f, -0.133285f, -0.000000f, 0.000000f, 0.000000f, 0.001762f,
    0.591270f, 0.000000f, -0.004566f, -0.000000f, -0.063325f, 0.848811f, 0.001286f, -0.000000f, -0.090962f, -0.000005f,
    -0.936454f, 0.000000f, -0.000000f, 0.000000f, 0.135211f, -0.147973f, 0.060349f, -0.347357f, -0.021614f, -0.910594f,
    0.013504f, 0.001552f, -0.494010f, -0.864913f, -0.000000f, 0.010096f, 0.193565f, -0.248969f, 0.000000f, -0.000000f,
    0.000000f, -0.069548f, -0.261593f, 0.000000f, -0.031028f, -0.000000f, -0.041393f, 1.107725f, 0.001143f, -0.000000f,
    0.019657f, -0.000018f, -0.249673f, 0.000000f, 0.000000f, -0.000000f, 0.015109f, -0.030634f, 0.019203f, -0.069487f,
    -0.016484f, -0.209442f, 0.012980f, 0.041284f, -0.132927f, 0.450662f, -0.000000f, -0.028842f, 0.358053f, -0.008006f,
    0.000000f, -0.000000f, -0.000000f, -0.479696f, -0.350764f, 0.000000f, 0.040602f, -0.000000f, 0.006530f, 0.585074f,
    0.001632f, 0.000000f, -0.029717f, 0.000021f, 0.056112f, -0.000000f, 0.000000f, 0.000000f, 0.012735f, 0.006366f,
    -0.048382f, -0.185758f, 0.019045f, -0.057028f, 0.014918f, 0.004809f, 0.074417f, 0.090527f, -0.000000f, -0.326343f,
    -0.022321f, 0.155778f, 0.000000f, -0.000000f, -0.000000f, 0.016512f, 0.427422f, 0.000000f, -0.310720f, -0.000000f,
    0.012138f, 0.263956f, 0.001281f, 0.000000f, -0.029988f, 0.000023f, 0.109344f, 0.000000f, -0.000000f, 0.000000f,
    0.031527f, 0.088563f, -0.046165f, -0.358173f, 0.018703f, -0.231592f, 0.022831f, -0.000553f, 0.113072f, -0.244315f,
    -0.000000f, -0.338527f, 0.004765f, 0.264593f, 0.000000f, -0.000000f, -0.000000f, -0.019122f, -0.219450f, 0.000000f,
    -0.513308f, -0.000000f, 0.048182f, 0.393150f, 0.001143f, 0.000000f, 0.023929f, 0.000030f, 0.015935f, 0.000000f,
    -0.000000f, -0.000000f, 0.034092f, 0.019342f, 0.060008f, -0.080959f, -0.001918f, -0.070328f, 0.003049f, -0.010717f,
    0.017547f, 0.165309f, -0.000000f, -0.268126f, 0.020173f, 0.052547f, 0.000000f, -0.000000f, -0.000000f, -0.114023f,
    -0.286452f, 0.000000f, -0.188330f, -0.000000f, 0.001985f, 0.138176f, 0.001685f, -0.000000f, -0.002201f, 0.000025f,
    0.006934f, -0.000000f, -0.000000f, 0.000000f, 0.000330f, 0.002827f, -0.045282f, 0.067666f, 0.043869f, -0.004571f,
    -0.011260f, 0.055886f, 0.039044f, 0.111308f, -0.000000f, 0.015966f, -0.126851f, -0.044837f, -0.000000f, -0.000000f,
    -0.000000f, 0.003441f, 0.087877f, 0.000000f, -0.001683f, -0.000000f, -0.065677f, -0.060187f, 0.001333f, -0.000000f,
    0.020965f, 0.000029f, 0.026592f, 0.000000f, -0.000000f, -0.000000f, 0.024323f, -0.026583f, -0.018582f, 0.095877f,
    0.022316f, -0.022427f, -0.005357f, -0.090953f, 0.048119f, -0.269735f, -0.000000f, -0.078566f, 0.044067f, -0.110313f,
    -0.000000f, 0.000000f, -0.000000f, -0.001587f, -0.030858f, 0.000000f, 0.043677f, 0.000000f, -0.157182f, -0.185970f,
    0.001169f, -0.000000f, 0.006096f, 0.000037f, 0.012375f, 0.000000f, -0.000000f, -0.000000f, -0.000899f, -0.014536f,
    0.013612f, 0.024677f, -0.012863f, -0.016862f, 0.025524f, -0.000535f, 0.009365f, 0.170034f, -0.000000f, 0.047570f,
    0.085391f, -0.047153f, 0.000000f, 0.000000f, -0.000000f, 0.007742f, -0.062991f, 0.000000f, 0.002080f, -0.000000f,
    0.011354f, 0.005441f, 0.001692f, -0.000000f, 0.017729f, 0.000023f, 0.080247f, -0.000000f, -0.000000f, 0.000000f,
    -0.000157f, -0.002523f, -0.013920f, -0.006446f, -0.029741f, -0.058721f, 0.022980f, -0.048555f, -0.033228f, 0.155552f,
    -0.000000f, 0.015942f, -0.075687f, -0.029934f, -0.000000f, 0.000000f, -0.000000f, -0.000426f, 0.760786f, 0.000000f,
    -0.033965f, -0.000000f, 0.002776f, -0.231081f, 0.001344f, -0.000000f, 0.007874f, 0.000027f, 0.179997f, 0.000000f,
    -0.000000f, 0.000000f, -0.059718f, 0.038008f, -0.016188f, 0.015354f, -0.037090f, -0.052470f, 0.017583f, -0.037179f,
    -0.010978f, -0.327515f, -0.000000f, -0.006048f, 0.002484f, -0.042150f, 0.000000f, 0.000000f, -0.000000f, 0.007430f,
    -0.326938f, 0.000000f, -0.004535f, -0.000000f, -0.020705f, -0.327918f, 0.001189f, -0.000000f, 0.009068f, 0.000034f,
    0.038616f, 0.000000f, -0.000000f, 0.000000f, 0.021916f, 0.031290f, 0.019012f, -0.003018f, -0.008283f, -0.051355f,
    -0.007997f, 0.049739f, 0.001123f, 0.182963f, -0.000000f, 0.002382f, 0.078857f, 0.013942f, 0.000000f, 0.000000f,
    -0.000000f, -0.013409f, -0.451492f, 0.000000f, 0.001324f, -0.000000f, -0.012983f, -0.093402f, 0.001691f, -0.000000f,
    0.004109f, 0.000030f, 0.005942f, -0.000000f, 0.000000f, 0.000000f, 0.002915f, 0.009555f, 0.004519f, 0.006159f,
    0.024213f, 0.009231f, -0.004083f, -0.050848f, 0.029997f, -0.002286f, -0.000000f, 0.038718f, 0.007471f, -0.048367f,
    -0.000000f, 0.000000f, -0.000000f, -0.009419f, 0.500092f, -0.000000f, -0.001487f, -0.000000f, -0.001784f, -0.044932f,
    0.001346f, 0.000000f, 0.004535f, 0.000036f, -0.014242f, 0.000000f, 0.000000f, -0.000000f, 0.008207f, -0.007960f,
    -0.032675f, 0.051535f, 0.051755f, 0.037155f, -0.006258f, 0.059811f, 0.039930f, -0.001582f, -0.000000f, -0.025318f,
    -0.016538f, -0.057321f, 0.000000f, 0.000000f, -0.000000f, 0.018203f, -0.137976f, 0.000000f, 0.004555f, -0.000000f,
    -0.014517f, -0.088031f, 0.001182f, -0.000000f, -0.004361f, 0.000057f, -0.017290f, 0.000000f, 0.000000f, -0.000000f,
    0.000299f, -0.020115f, -0.036320f, 0.026441f, 0.022086f, 0.009828f, 0.001575f, -0.017284f, -0.003520f, -0.017496f,
    -0.000000f, 0.014860f, 0.008179f, -0.012637f, 0.000000f, 0.000000f, -0.000000f, -0.010222f, -0.311782f, 0.000000f,
    -0.036913f, -0.000000f, -0.001359f, 0.011637f
};

const float layer_2_bias[32] = {
    0.705471f, -0.168055f, 4.592995f, 0.186066f, 3.597819f, 0.448420f, -2.666686f, -1.266242f, 5.009612f, 3.043733f,
    0.818270f, 3.189531f, -1.386162f, 2.505961f, 3.739203f, -2.813629f, 3.577286f, 3.582065f, -0.186867f, -1.866721f,
    3.032288f, 3.144710f, -0.330954f, 2.819339f, -0.089635f, -5.070143f, 3.098354f, 0.404740f, -4.982305f, -0.286725f,
    3.249690f, 1.748502f
};

const float layer_2_weights[32] = {
    0.967391f, 0.981578f, 0.611223f, 0.990757f, 1.052549f, 1.216919f, 1.145414f, 0.404150f, 0.480694f, 0.416041f,
    1.626138f, 1.380627f, 2.525370f, 0.707728f, 1.217551f, 2.295057f, 1.152657f, 0.468463f, 0.987631f, 1.235093f,
    0.645957f, 0.981174f, 0.967182f, 0.063219f, 1.034306f, 3.980383f, 0.601264f, 0.986055f, 3.741085f, 1.021911f,
    1.071353f, 0.743800f
};

const float layer_4_weights[288] = {
    -1.433541f, -1.965255f, -0.233508f, -0.279971f, 1.845402f, -1.846999f, -1.481572f, -0.648663f, 0.591289f, -0.274808f,
    -0.488106f, 7.982459f, -0.823575f, 0.519043f, -0.104842f, -1.690126f, 1.441442f, 16.937569f, -1.133303f, -0.929037f,
    1.290696f, -0.810947f, -0.073306f, -2.095387f, -0.236867f, -3.174965f, 21.312717f, 0.842531f, 7.925744f, 1.516429f,
    -0.209044f, -0.177340f, -1.343866f, -1.288747f, -15.495255f, 0.539187f, 17.297117f, -0.018377f, 1.513726f, -0.534185f,
    -15.711512f, -3.572028f, -2.233703f, -8.922763f, -2.656814f, -5.271131f, -0.430368f, 5.620259f, -1.952576f, 18.844376f,
    -1.307996f, -1.202020f, -29.919882f, 15.702819f, -0.404203f, 1.244332f, -1.130645f, -3.062399f, -19.777197f, 1.134063f,
    2.135629f, 0.422115f, -7.611593f, -1.970042f, -0.975941f, -0.771240f, 0.856417f, 0.647211f, -0.362591f, -0.176051f,
    2.235081f, -0.042452f, 0.639973f, -0.224614f, -0.966128f, -0.675422f, -1.332617f, 0.500791f, 0.596820f, -0.384700f,
    0.556252f, -17.308283f, 0.016227f, -1.524052f, 2.690496f, -0.395473f, -0.499661f, 0.856208f, -0.145434f, 2.928375f,
    -1.409911f, 0.343397f, -1.346749f, -0.322392f, 8.241041f, 0.221859f, -1.240240f, -1.915856f, 0.104988f, 0.690692f,
    -2.489906f, -2.391321f, -1.562403f, -0.172634f, -1.160752f, -0.417670f, -2.921842f, -8.095220f, -2.457007f, -0.178701f,
    -1.231045f, 0.494114f, 18.667934f, -10.541286f, -0.182840f, 4.797363f, -0.105087f, 0.173122f, -0.643999f, -2.092122f,
    -0.227662f, -0.004033f, 1.383832f, 1.875537f, -2.870741f, 1.019521f, -0.772205f, -0.973522f, -1.317000f, -0.691585f,
    2.824503f, 1.030924f, -13.712036f, -3.413717f, -0.655582f, -0.354311f, -0.144620f, -7.520977f, 9.343687f, 9.791087f,
    10.439476f, 12.522470f, -21.234783f, -0.000010f, -14.655541f, -3.556500f, -0.423588f, 1.245656f, 26.939466f, -12.485689f,
    -0.426966f, -0.739053f, -0.637546f, 1.121208f, -1.056559f, 1.306532f, -1.780166f, 0.627818f, -12.015113f, -3.115766f,
    -1.548629f, -1.067843f, -0.033263f, 0.775656f, -0.203818f, -1.227350f, 0.978389f, 0.320727f, 0.141003f, 0.009739f,
    2.225206f, 0.179359f, 2.383542f, -0.324237f, 22.812380f, -0.262280f, -3.617613f, 1.937652f, -0.585979f, -0.390564f,
    -1.824539f, 0.092213f, -0.785845f, 0.128767f, -1.369687f, 0.302823f, -0.194811f, 0.966924f, 0.339713f, -0.200971f,
    12.445977f, -0.101866f, -2.096596f, -1.276160f, -0.037299f, 0.425671f, 0.197604f, -1.799724f, -0.497120f, 0.972593f,
    0.198989f, 1.078965f, -0.198229f, 0.240462f, -0.789436f, -0.326500f, 0.032243f, -0.466296f, -0.445083f, -3.383762f,
    -0.618409f, 1.049171f, -1.168146f, 0.332786f, -0.992076f, -1.301453f, -0.280107f, 2.562970f, -0.570084f, 0.648149f,
    -2.570253f, 0.695697f, -0.022498f, 0.043553f, -1.809172f, -0.279934f, 13.230294f, 0.239399f, -2.227740f, -1.413193f,
    -0.304264f, 1.222242f, 16.117611f, 10.082102f, -2.394008f, 0.130403f, -2.268640f, -0.818915f, -1.396000f, -1.374951f,
    -0.210127f, -3.711999f, -0.419563f, 0.371271f, 2.652094f, -2.023475f, -0.442993f, -0.196380f, -0.237456f, 0.529205f,
    0.160597f, 0.823491f, -1.026581f, 0.064072f, 0.314961f, -0.845782f, -1.349751f, -0.407621f, -0.939333f, 0.666964f,
    0.129464f, -1.283295f, -0.389710f, -0.678820f, -0.912875f, 0.381049f, -0.782104f, -0.518931f, -0.914240f, 0.022872f,
    1.213941f, -0.425804f, 0.243388f, 0.727780f, 0.344719f, -1.044054f, -0.767404f, -0.195072f, -0.702125f, 0.820373f,
    -0.461274f, 0.387841f, 0.104945f, -0.011523f, -0.615039f, 0.296375f, -0.397602f, 0.223868f
};

const float layer_5_bias[32] = {
    -0.430853f, -0.713293f, 0.218250f, -0.576249f, 2.758578f, -0.119962f, 0.387394f, -0.731725f, 0.213363f, 1.577732f,
    2.705959f, 3.246520f, 1.964055f, 2.370327f, 2.502517f, -0.219626f, 2.091342f, 2.444256f, -0.617192f, -0.375477f,
    3.632706f, 2.908149f, -0.372759f, -1.904723f, -0.696880f, -0.502547f, 2.251193f, -0.356136f, 0.313429f, -0.921605f,
    3.166439f, 1.128972f
};

const float layer_5_weights[32] = {
    0.266657f, 0.280336f, 1.307336f, -0.086054f, 1.245561f, -0.010840f, 0.158179f, 0.431765f, 1.335760f, 0.858358f,
    0.465514f, 0.589225f, 0.432977f, 0.908034f, 1.538253f, 0.374169f, 1.114884f, 2.448688f, 0.678139f, 0.230790f,
    1.247561f, 1.313318f, 0.570280f, 1.714849f, 0.691271f, 0.384203f, 1.575334f, 0.083752f, 0.245773f, 0.193504f,
    1.443572f, 0.390268f
};

const float layer_7_weights[512] = {
    0.000958f, -0.001151f, 0.000102f, 0.000381f, 0.000302f, 0.000138f, 0.000373f, 0.000158f, -0.000548f, -0.000875f,
    0.000534f, 0.000673f, 0.000417f, -0.000937f, 0.000740f, -0.000205f, 0.000000f, 0.000000f, 0.000000f, 0.000000f,
    -0.000000f, 0.000000f, -0.000000f, -0.000000f, 0.000000f, -0.000000f, -0.000000f, 0.000000f, -0.000000f, -0.000000f,
    -0.000000f, -0.000000f, 0.340091f, -0.431470f, 0.119494f, -0.133607f, -0.199676f, -0.064401f, -0.148671f, 0.154671f,
    0.257360f, 0.208550f, 0.082189f, 0.037222f, -0.244592f, 0.507628f, 0.602421f, 0.347899f, -0.000041f, 0.000076f,
    0.000059f, 0.000066f, -0.000085f, -0.000128f, 0.000028f, -0.000017f, 0.000086f, -0.000097f, 0.000040f, 0.000045f,
    0.000085f, 0.000050f, -0.000071f, 0.000007f, 0.310156f, -0.314078f, -0.018221f, -0.287985f, 0.263659f, 0.000021f,
    -0.245060f, 0.227741f, -0.605304f, 0.015879f, -0.355986f, -0.178179f, -0.083776f, 0.019945f, 0.119316f, 0.295438f,
    -0.000000f, 0.000000f, -0.000000f, -0.000000f, -0.000000f, 0.000000f, 0.000000f, -0.000000f, 0.000000f, 0.000000f,
    0.000000f, 0.000000f, -0.000000f, -0.000000f, 0.000000f, 0.000000f, -0.000029f, 0.000180f, -0.000126f, 0.000355f,
    -0.000157f, 0.000184f, 0.000379f, -0.000257f, 0.000551f, 0.000146f, -0.000035f, 0.000272f, 0.000031f, 0.000134f,
    -0.000092f, -0.000199f, -0.000000f, -0.000000f, 0.000000f, 0.000000f, -0.000000f, 0.000000f, -0.000000f, -0.000000f,
    -0.000000f, 0.000000f, -0.000000f, -0.000000f, -0.000000f, 0.000000f, 0.000000f, 0.000000f, -0.580447f, 0.239650f,
    0.067837f, -0.186979f, -0.100891f, 0.133019f, -0.100298f, 0.146930f, -0.453321f, -0.414637f, 0.061163f, 0.101502f,
    0.057821f, 0.266510f, -0.351442f, -0.251053f, -0.038571f, 0.002852f, -0.067098f, 0.106180f, -0.116923f, -0.942959f,
    0.035950f, -0.032105f, -0.169040f, 0.006886f, 0.061643f, -0.010125f, -0.030348f, -0.039412f, -0.095320f, -0.034947f,
    0.080031f, 0.223444f, 0.124766f, 0.340341f, -0.018334f, -0.003076f, 0.052171f, 0.023213f, -0.029239f, 0.233057f,
    -0.694207f, -0.088981f, 0.009202f, 0.303768f, -0.089794f, -0.103875f, -0.309611f, -0.199538f, -0.132669f, 0.335502f,
    -0.007564f, 0.036072f, 0.063706f, 0.024489f, -0.045223f, 0.099811f, 0.297316f, -0.767574f, 0.121300f, 0.128566f,
    0.033713f, 0.158693f, 0.000606f, -0.164486f, 0.210705f, -0.069576f, 0.295215f, -0.026920f, -0.121463f, 0.137597f,
    0.085886f, -0.157341f, 0.502523f, 0.052527f, -0.063469f, -0.138608f, -0.088266f, 0.117782f, 0.156961f, 0.200172f,
    0.009158f, -0.089187f, 0.262158f, -0.022170f, 0.143448f, -0.188346f, -0.199605f, 0.533655f, 0.227427f, 0.086916f,
    0.074328f, 0.271214f, 0.023817f, -0.213505f, 0.135269f, 0.323798f, 0.214684f, -0.340892f, -0.362513f, -0.092540f,
    -0.279738f, 0.222888f, 0.168803f, 0.151688f, -0.002052f, -0.359008f, -0.005369f, -0.093742f, -0.166239f, -0.326483f,
    -0.283166f, -0.116543f, 0.158734f, 0.043137f, 0.088227f, -0.018443f, -0.204893f, 0.201325f, 0.050483f, 0.174998f,
    -0.097226f, 0.124506f, 0.186990f, -0.049678f, -0.036725f, 0.025774f, -0.120387f, -0.138150f, -0.231892f, -0.630677f,
    0.257504f, -0.180627f, 0.125896f, -0.050313f, 0.379405f, 0.081244f, -0.224880f, -0.384798f, 0.045876f, 0.290667f,
    -0.408142f, 0.197381f, -0.020989f, -0.545342f, 0.067617f, -0.007431f, -0.059890f, -0.076444f, 0.038818f, 0.017817f,
    0.021661f, -0.022726f, -0.059454f, 0.020854f, 0.003328f, 0.018919f, 0.009285f, -0.728390f, 0.000000f, -0.000000f,
    0.000000f, -0.000000f, -0.000000f, 0.000000f, -0.000000f, 0.000000f, -0.000000f, -0.000000f, -0.000000f, 0.000000f,
    0.000000f, -0.000000f, -0.000000f, 0.000000f, -0.142280f, 0.022487f, 0.183254f, 0.056621f, 0.192477f, -0.043676f,
    -0.109856f, 0.083548f, 0.022413f, 0.141742f, 0.037143f, 0.061788f, 0.074366f, -0.047804f, -0.044079f, 0.116340f,
    0.580012f, -0.000871f, 0.052676f, 0.049050f, 0.004473f, -0.014126f, 0.058370f, -0.031315f, 0.022468f, -0.354179f,
    0.041813f, -0.026072f, 1.121083f, 0.112385f, -0.055357f, -0.017749f, -0.204842f, 0.368851f, 0.119985f, -0.137100f,
    0.397181f, -0.125551f, -0.091794f, 0.096879f, -0.030111f, -0.218668f, -0.107756f, -0.193397f, 0.140142f, 0.042103f,
    0.452755f, -0.200263f, -0.000000f, 0.000000f, 0.000000f, 0.000000f, -0.000000f, -0.000000f, -0.000000f, 0.000000f,
    -0.000000f, -0.000000f, -0.000000f, 0.000000f, 0.000000f, -0.000000f, -0.000000f, -0.000000f, -0.000323f, -0.249573f,
    -0.011476f, -0.094140f, 0.167048f, -0.127087f, -0.263567f, -0.321775f, 0.193060f, -0.067019f, -0.094395f, -0.123075f,
    -0.038382f, 0.218516f, -0.173211f, -0.197162f, -0.000000f, 0.000000f, 0.000000f, -0.000000f, 0.000000f, 0.000000f,
    -0.000000f, -0.000000f, 0.000000f, -0.000000f, 0.000000f, 0.000000f, -0.000000f, 0.000000f, 0.000000f, 0.000000f,
    -0.277976f, -0.181459f, -0.080164f, -0.110295f, -0.126537f, 0.007857f, -0.091519f, 0.096971f, 0.010431f, 0.158648f,
    -0.066306f, 0.117484f, 0.138083f, -0.124483f, 0.070710f, -0.103508f, 0.041895f, 0.000808f, 0.033993f, 0.063246f,
    0.019530f, 0.002190f, -0.811683f, -0.789863f, 0.003018f, -0.074155f, -0.038785f, 0.007505f, 0.017618f, 0.092817f,
    -0.021473f, 0.002681f, -0.000000f, 0.000000f, 0.000000f, 0.000000f, 0.000000f, 0.000000f, -0.000000f, -0.000000f,
    0.000000f, -0.000000f, -0.000000f, 0.000000f, -0.000000f, 0.000000f, 0.000000f, 0.000000f, 0.099908f, -0.159273f,
    0.171489f, 0.072545f, 0.095616f, 0.004698f, -0.079267f, 0.122419f, 0.022161f, 0.023440f, 0.035025f, 0.024984f,
    -0.087444f, -0.017913f, -0.097128f, 0.215244f, 0.000000f, 0.000000f, -0.000000f, -0.000000f, -0.000000f, -0.000000f,
    -0.000000f, 0.000000f, -0.000000f, 0.000000f, 0.000000f, -0.000000f, -0.000000f, 0.000000f, -0.000000f, -0.000000f,
    -0.116528f, -0.211336f, 0.502079f, -0.040338f, -0.158364f, 0.009890f, 0.296815f, -0.318369f, -0.089224f, -0.058718f,
    -0.048404f, -0.050246f, 0.022312f, -0.149977f, 0.081321f, 0.121240f, 0.188482f, -0.112869f, -0.022893f, -0.184858f,
    -0.066227f, 0.180032f, -0.024417f, -0.019230f, -0.604007f, 0.375808f, 0.028946f, 0.115694f, -0.030674f, 0.169376f,
    -0.386231f, 0.023894f
};

#endif
